[{"init_fit": {"mean_fit_time": [4.663872480392456, 2.3531967798868814, 12.14707883199056, 5.239118019739787, 4.886482000350952, 9.437628587086996, 8.347607294718424, 7.757300456364949, 15.066255569458008, 9.618645747502645], "std_fit_time": [0.06900882033888812, 0.025033892456117878, 0.808402376440605, 0.4733371686163455, 0.3582626137953076, 0.09713266248016056, 0.07068963933362521, 0.17591372212477177, 0.06026777683833535, 0.06270930894112199], "mean_score_time": [0.01715691884358724, 0.009317954381306967, 0.01905361811319987, 0.01799798011779785, 0.01633342107137044, 0.016663551330566406, 0.01901133855183919, 0.01798073450724284, 0.023634910583496094, 0.01900617281595866], "std_score_time": [0.0013090629869849848, 0.000485831989335197, 9.025800938477024e-05, 0.0014082161569980568, 0.0004684560999961165, 0.0004710341846080385, 0.0021807342593938637, 0.0016462452861211675, 0.0040877570948755805, 0.0008269701233194931], "param_subsample": [0.5, 1, 1, 0.5, 1, 0.5, 1, 0.5, 0.5, 1], "param_reg_lambda": [8, 4, 4, 8, 2, 2, 8, 4, 8, 4], "param_reg_alpha": [0.01, 0.2, 0, 0, 0.2, 0.1, 0.01, 0.2, 0.01, 0], "param_n_estimators": [1000, 500, 2000, 1000, 500, 1000, 1000, 1000, 1000, 1000], "param_min_child_weight": [20, 10, 20, 30, 30, 10, 20, 30, 10, 20], "param_max_depth": [3, 3, 3, 3, 9, 9, 15, 3, 15, 9], "param_learning_rate": [0.1, 0.001, 0.01, 0.001, 0.0001, 0.0001, 0.001, 0.001, 0.01, 0.001], "param_colsample_bytree": [0.8, 0.8, 0.5, 0.2, 0.5, 0.8, 0.2, 0.8, 0.8, 0.8], "params": [{"subsample": 0.5, "reg_lambda": 8, "reg_alpha": 0.01, "n_estimators": 1000, "min_child_weight": 20, "max_depth": 3, "learning_rate": 0.1, "colsample_bytree": 0.8}, {"subsample": 1, "reg_lambda": 4, "reg_alpha": 0.2, "n_estimators": 500, "min_child_weight": 10, "max_depth": 3, "learning_rate": 0.001, "colsample_bytree": 0.8}, {"subsample": 1, "reg_lambda": 4, "reg_alpha": 0, "n_estimators": 2000, "min_child_weight": 20, "max_depth": 3, "learning_rate": 0.01, "colsample_bytree": 0.5}, {"subsample": 0.5, "reg_lambda": 8, "reg_alpha": 0, "n_estimators": 1000, "min_child_weight": 30, "max_depth": 3, "learning_rate": 0.001, "colsample_bytree": 0.2}, {"subsample": 1, "reg_lambda": 2, "reg_alpha": 0.2, "n_estimators": 500, "min_child_weight": 30, "max_depth": 9, "learning_rate": 0.0001, "colsample_bytree": 0.5}, {"subsample": 0.5, "reg_lambda": 2, "reg_alpha": 0.1, "n_estimators": 1000, "min_child_weight": 10, "max_depth": 9, "learning_rate": 0.0001, "colsample_bytree": 0.8}, {"subsample": 1, "reg_lambda": 8, "reg_alpha": 0.01, "n_estimators": 1000, "min_child_weight": 20, "max_depth": 15, "learning_rate": 0.001, "colsample_bytree": 0.2}, {"subsample": 0.5, "reg_lambda": 4, "reg_alpha": 0.2, "n_estimators": 1000, "min_child_weight": 30, "max_depth": 3, "learning_rate": 0.001, "colsample_bytree": 0.8}, {"subsample": 0.5, "reg_lambda": 8, "reg_alpha": 0.01, "n_estimators": 1000, "min_child_weight": 10, "max_depth": 15, "learning_rate": 0.01, "colsample_bytree": 0.8}, {"subsample": 1, "reg_lambda": 4, "reg_alpha": 0, "n_estimators": 1000, "min_child_weight": 20, "max_depth": 9, "learning_rate": 0.001, "colsample_bytree": 0.8}], "split0_test_score": [-585406355.7816621, -13933098170.60065, -514018772.7422083, -6591194930.090224, -32156527141.44823, -29311078804.589752, -6173542703.048162, -6071115253.353616, -447537121.22637033, -5775289393.281966], "split1_test_score": [-1235757952.9767075, -17709178590.38075, -1031287424.6012509, -9503635542.75825, -38036811800.722534, -34875627808.66256, -8842260750.448769, -8643534053.516197, -1028418091.3104838, -8152614711.377051], "split2_test_score": [-788322960.7291969, -16412938515.943476, -764895667.6927654, -8622880062.365488, -36248553015.09387, -33158145157.102226, -7997739409.279535, -7769310160.56005, -735446061.9435198, -7319895524.904351], "mean_test_score": [-869829089.8291888, -16018405092.30829, -770067288.3454081, -8239236845.07132, -35480630652.42155, -32448283923.45151, -7671180954.258822, -7494653155.809955, -737133758.1601248, -7082599876.521123], "std_test_score": [271688224.2622783, 1566618077.4597735, 211205703.51223785, 1219552969.7971, 2461261937.142999, 2326510782.690394, 1113700834.3175955, 1067992501.082036, 237146665.71604285, 984936828.9625438], "rank_test_score": [3, 8, 2, 7, 10, 9, 6, 5, 1, 4], "split0_train_score": [-70866220.54440959, -16791949848.65379, -224764555.46438143, -8685432930.395391, -37092022160.69689, -33951569632.128044, -8035342798.657778, -7899097356.040707, -345880043.6073053, -7355453946.935219], "split1_train_score": [-48756366.9259202, -15357435292.224752, -191931512.7506417, -7761332273.031202, -34235015452.58607, -31291820933.147213, -7177193009.31595, -7046327371.772149, -214019647.33795556, -6602466851.439225], "split2_train_score": [-65717726.76714347, -15785455115.857924, -187792785.01968992, -8026765987.691425, -35095716552.737526, -32089590549.347603, -7404256079.323106, -7261265701.217928, -285464239.1156682, -6854584777.377313], "mean_train_score": [-61780104.74582442, -15978280085.578821, -201496284.41157103, -8157843730.372673, -35474251388.67349, -32444327038.207623, -7538930629.098945, -7402230143.010262, -281787976.6869764, -6937501858.583919], "std_train_score": [9445988.818711696, 601300870.2596941, 16539681.47915851, 388481262.701339, 1196686619.8133247, 1114433867.5845256, 363050217.8348053, 362130171.71979934, 53894509.33790901, 312947091.65474]}}, {"iter0_fit": {"mean_fit_time": [36.005365451176964, 16.716989119847614, 29.368876298268635, 34.051343043645225, 16.39438756306966, 28.927566051483154, 27.929654200871784, 16.77497323354085, 25.502938747406006, 18.92299723625183], "std_fit_time": [0.1285323904740849, 0.05526255479505456, 0.20910435005005462, 1.3398254410805261, 0.5362691854274029, 0.2011600106138998, 0.3183276635537567, 0.6989708394906612, 1.1838193591387498, 0.32460361659325754], "mean_score_time": [0.029654582341512043, 0.02163394292195638, 0.02633515993754069, 0.030968745549519856, 0.020168860753377277, 0.025319258371988933, 0.02899169921875, 0.022693395614624023, 0.13193718592325845, 1.0617934068044026], "std_score_time": [0.00285916848701403, 0.0031169034216920063, 0.003668779343567838, 0.005741428113782958, 0.001454389893918209, 0.0004571180929505823, 0.00359418402189902, 0.0016933213269151868, 0.14916047965417645, 0.7412878001554761], "param_subsample": [0.5407484950547212, 0.4646974691905046, 0.5407484950547212, 0.5407484950547212, 0.4646974691905046, 0.5407484950547212, 0.4646974691905046, 0.5407484950547212, 0.5407484950547212, 0.5407484950547212], "param_reg_lambda": [11, 10, 11, 10, 8, 8, 8, 8, 11, 11], "param_reg_alpha": [0.013385966565790205, 0.010186672036486138, 0.00936272287728574, 0.013385966565790205, 0.013385966565790205, 0.00936272287728574, 0.010186672036486138, 0.00936272287728574, 0.013385966565790205, 0.013385966565790205], "param_n_estimators": [1445, 867, 1260, 1445, 867, 1445, 1260, 867, 1445, 1260], "param_min_child_weight": [9, 13, 9, 13, 13, 9, 10, 10, 9, 13], "param_max_depth": [10, 10, 10, 18, 18, 10, 15, 10, 10, 10], "param_learning_rate": [0.013400673202789301, 0.013400673202789301, 0.011578880840243501, 0.011578880840243501, 0.011578880840243501, 0.011578880840243501, 0.013400673202789301, 0.013400673202789301, 0.011578880840243501, 0.011578880840243501], "param_colsample_bytree": [0.9616457855405525, 0.9616457855405525, 0.9616457855405525, 0.9616457855405525, 0.6768001740924368, 0.6323588806105651, 0.6323588806105651, 0.9616457855405525, 0.9616457855405525, 0.6323588806105651], "params": [{"subsample": 0.5407484950547212, "reg_lambda": 11, "reg_alpha": 0.013385966565790205, "n_estimators": 1445, "min_child_weight": 9, "max_depth": 10, "learning_rate": 0.013400673202789301, "colsample_bytree": 0.9616457855405525}, {"subsample": 0.4646974691905046, "reg_lambda": 10, "reg_alpha": 0.010186672036486138, "n_estimators": 867, "min_child_weight": 13, "max_depth": 10, "learning_rate": 0.013400673202789301, "colsample_bytree": 0.9616457855405525}, {"subsample": 0.5407484950547212, "reg_lambda": 11, "reg_alpha": 0.00936272287728574, "n_estimators": 1260, "min_child_weight": 9, "max_depth": 10, "learning_rate": 0.011578880840243501, "colsample_bytree": 0.9616457855405525}, {"subsample": 0.5407484950547212, "reg_lambda": 10, "reg_alpha": 0.013385966565790205, "n_estimators": 1445, "min_child_weight": 13, "max_depth": 18, "learning_rate": 0.011578880840243501, "colsample_bytree": 0.9616457855405525}, {"subsample": 0.4646974691905046, "reg_lambda": 8, "reg_alpha": 0.013385966565790205, "n_estimators": 867, "min_child_weight": 13, "max_depth": 18, "learning_rate": 0.011578880840243501, "colsample_bytree": 0.6768001740924368}, {"subsample": 0.5407484950547212, "reg_lambda": 8, "reg_alpha": 0.00936272287728574, "n_estimators": 1445, "min_child_weight": 9, "max_depth": 10, "learning_rate": 0.011578880840243501, "colsample_bytree": 0.6323588806105651}, {"subsample": 0.4646974691905046, "reg_lambda": 8, "reg_alpha": 0.010186672036486138, "n_estimators": 1260, "min_child_weight": 10, "max_depth": 15, "learning_rate": 0.013400673202789301, "colsample_bytree": 0.6323588806105651}, {"subsample": 0.5407484950547212, "reg_lambda": 8, "reg_alpha": 0.00936272287728574, "n_estimators": 867, "min_child_weight": 10, "max_depth": 10, "learning_rate": 0.013400673202789301, "colsample_bytree": 0.9616457855405525}, {"subsample": 0.5407484950547212, "reg_lambda": 11, "reg_alpha": 0.013385966565790205, "n_estimators": 1445, "min_child_weight": 9, "max_depth": 10, "learning_rate": 0.011578880840243501, "colsample_bytree": 0.9616457855405525}, {"subsample": 0.5407484950547212, "reg_lambda": 11, "reg_alpha": 0.013385966565790205, "n_estimators": 1260, "min_child_weight": 13, "max_depth": 10, "learning_rate": 0.011578880840243501, "colsample_bytree": 0.6323588806105651}], "split0_test_score": [-496541736.4420268, -464794530.17562586, -465866786.431842, -483510699.0949339, -447727253.3387429, -474900990.9104586, -477575201.1748737, -467391226.8657644, -472741680.8509841, -466719099.56657076], "split1_test_score": [-1044835763.3733631, -1038907539.5223682, -1043521013.4221743, -1051549146.4871597, -1045176279.0835661, -1021442162.7687224, -1022713036.050632, -1026051857.2341535, -1047102515.27364, -1028475250.639125], "split2_test_score": [-716638667.8547308, -746963994.8953801, -735832702.1202754, -702455698.0685776, -748172246.302965, -685732132.237187, -685882055.237659, -718853480.201029, -723888878.4633299, -718158652.7212714], "mean_test_score": [-752672055.8900403, -750222021.5311247, -748406833.9914306, -745838514.5502238, -747025259.5750914, -727358428.6387893, -728723430.8210549, -737432188.1003156, -747911024.8626513, -737784334.308989], "std_test_score": [225285579.9233832, 234391976.4389879, 235993902.58250955, 233920885.49101773, 243908891.83569485, 225057584.55431888, 224603877.00670645, 228450288.2048328, 235096277.6791602, 229755477.0479541], "rank_test_score": [10, 9, 8, 5, 6, 1, 2, 3, 7, 4], "split0_train_score": [-164839220.98893672, -383783134.14775467, -227145741.5548622, -239944905.35907924, -417016499.7660703, -177566278.41216028, -226182841.5981025, -276479412.9918677, -195985481.48822418, -290299210.3730595], "split1_train_score": [-102747549.30952053, -251008608.90484765, -140909303.64758366, -154430570.82924137, -271058682.5551283, -105836352.70427471, -141060300.52816588, -172298992.85926268, -121406916.0308787, -187965133.96460834], "split2_train_score": [-156561275.48605996, -319491391.5277235, -200429196.5665033, -207312292.34403715, -342462764.13677627, -164848130.07496306, -203270948.2503778, -236857391.0469619, -177415006.4284766, -250849568.0625856], "mean_train_score": [-141382681.9281724, -318094378.1934419, -189494747.2563164, -200562589.51078594, -343512648.819325, -149416920.39713266, -190171363.45888206, -228545265.63269743, -164935801.31585982, -243037970.80008447], "std_train_score": [27527394.837177057, 54213973.43282116, 36044902.01606659, 35235817.18245565, 59591653.747991025, 31250463.8323505, 35964436.97907654, 42935677.133966886, 31699511.316958413, 42141282.90592901]}}, {"iter1_fit": {"mean_fit_time": [18.365077018737793, 16.83812403678894, 30.386489788691204, 32.34660085042318, 34.05423959096273, 39.358398834864296, 32.6052049001058, 40.23404518763224, 18.632489760716755, 22.620760520299275], "std_fit_time": [0.06412936945377123, 0.028793563102971008, 0.31810019365698217, 0.04008982345672035, 0.4268565943558822, 0.6214811290834256, 0.1583281523056674, 1.077338575590447, 0.2003303979600017, 1.9670422043366742], "mean_score_time": [0.030686219533284504, 0.029969135920206707, 0.03430549303690592, 0.04300443331400553, 0.0318453311920166, 0.029987017313639324, 0.03313668568929037, 0.0328214168548584, 0.021848201751708984, 0.03461774190266927], "std_score_time": [0.000968141697477246, 0.0024856250520980754, 0.005396951429563306, 0.0077698486088985256, 0.0021001817856519667, 0.0008348420139278873, 0.005638610875900084, 0.0014508286351772365, 0.0005866586488305136, 0.012896411123881447], "param_subsample": [0.4726386193070711, 0.4726386193070711, 0.3678771307095151, 0.4726386193070711, 0.586526946802515, 0.586526946802515, 0.4726386193070711, 0.4726386193070711, 0.4726386193070711, 0.3678771307095151], "param_reg_lambda": [5, 5, 11, 5, 11, 7, 11, 5, 7, 11], "param_reg_alpha": [0.01005911742873402, 0.01005911742873402, 0.01382559097558922, 0.01382559097558922, 0.01005911742873402, 0.012822669396347446, 0.01382559097558922, 0.01005911742873402, 0.01005911742873402, 0.01382559097558922], "param_n_estimators": [967, 967, 1828, 1735, 1735, 1735, 1735, 1828, 967, 1828], "param_min_child_weight": [9, 8, 10, 9, 9, 9, 9, 8, 9, 9], "param_max_depth": [12, 11, 13, 11, 11, 13, 11, 13, 11, 12], "param_learning_rate": [0.012152284631106644, 0.009475917129696285, 0.009475917129696285, 0.008872576820296754, 0.008872576820296754, 0.009475917129696285, 0.009475917129696285, 0.012152284631106644, 0.012152284631106644, 0.012152284631106644], "param_colsample_bytree": [0.6005998307840703, 0.6005998307840703, 0.5758709125990866, 0.6005998307840703, 0.5758709125990866, 0.5758709125990866, 0.5758709125990866, 0.5758709125990866, 0.8312708278646463, 0.6005998307840703], "params": [{"subsample": 0.4726386193070711, "reg_lambda": 5, "reg_alpha": 0.01005911742873402, "n_estimators": 967, "min_child_weight": 9, "max_depth": 12, "learning_rate": 0.012152284631106644, "colsample_bytree": 0.6005998307840703}, {"subsample": 0.4726386193070711, "reg_lambda": 5, "reg_alpha": 0.01005911742873402, "n_estimators": 967, "min_child_weight": 8, "max_depth": 11, "learning_rate": 0.009475917129696285, "colsample_bytree": 0.6005998307840703}, {"subsample": 0.3678771307095151, "reg_lambda": 11, "reg_alpha": 0.01382559097558922, "n_estimators": 1828, "min_child_weight": 10, "max_depth": 13, "learning_rate": 0.009475917129696285, "colsample_bytree": 0.5758709125990866}, {"subsample": 0.4726386193070711, "reg_lambda": 5, "reg_alpha": 0.01382559097558922, "n_estimators": 1735, "min_child_weight": 9, "max_depth": 11, "learning_rate": 0.008872576820296754, "colsample_bytree": 0.6005998307840703}, {"subsample": 0.586526946802515, "reg_lambda": 11, "reg_alpha": 0.01005911742873402, "n_estimators": 1735, "min_child_weight": 9, "max_depth": 11, "learning_rate": 0.008872576820296754, "colsample_bytree": 0.5758709125990866}, {"subsample": 0.586526946802515, "reg_lambda": 7, "reg_alpha": 0.012822669396347446, "n_estimators": 1735, "min_child_weight": 9, "max_depth": 13, "learning_rate": 0.009475917129696285, "colsample_bytree": 0.5758709125990866}, {"subsample": 0.4726386193070711, "reg_lambda": 11, "reg_alpha": 0.01382559097558922, "n_estimators": 1735, "min_child_weight": 9, "max_depth": 11, "learning_rate": 0.009475917129696285, "colsample_bytree": 0.5758709125990866}, {"subsample": 0.4726386193070711, "reg_lambda": 5, "reg_alpha": 0.01005911742873402, "n_estimators": 1828, "min_child_weight": 8, "max_depth": 13, "learning_rate": 0.012152284631106644, "colsample_bytree": 0.5758709125990866}, {"subsample": 0.4726386193070711, "reg_lambda": 7, "reg_alpha": 0.01005911742873402, "n_estimators": 967, "min_child_weight": 9, "max_depth": 11, "learning_rate": 0.012152284631106644, "colsample_bytree": 0.8312708278646463}, {"subsample": 0.3678771307095151, "reg_lambda": 11, "reg_alpha": 0.01382559097558922, "n_estimators": 1828, "min_child_weight": 9, "max_depth": 12, "learning_rate": 0.012152284631106644, "colsample_bytree": 0.6005998307840703}], "split0_test_score": [-466617340.7127571, -441143860.72406197, -435985185.9721827, -473884932.6737821, -455472469.1892315, -475697706.1413737, -442005556.9960748, -489948574.2166798, -463840995.580839, -462892580.7934869], "split1_test_score": [-1018425624.8615106, -1018665923.6588646, -1021705284.8528299, -1031710033.8810991, -1017870473.1054418, -1029937660.1953065, -1028044709.4316102, -1062812497.8319622, -1024289766.8309863, -1033360885.6739365], "split2_test_score": [-696463411.366594, -724751049.9074917, -722370340.5065267, -676556523.6354727, -721239849.7468262, -700450700.2957088, -701993792.5622287, -681601638.4028289, -701289771.0102834, -693787115.3191096], "mean_test_score": [-727168792.3136206, -728186944.7634727, -726686937.1105131, -727383830.0634513, -731527597.3471665, -735362022.2107964, -724014686.3299713, -744787570.1504904, -729806844.4740362, -730013527.2621776], "std_test_score": [226318670.50411373, 235784912.33072788, 239138709.13881752, 230549737.5018835, 229713237.19694614, 227610166.68245226, 239755655.98971498, 238100280.30655363, 229689099.88381076, 234297227.76848364], "rank_test_score": [3, 5, 2, 4, 8, 9, 1, 10, 6, 7], "split0_train_score": [-256828173.37571508, -299785057.5266636, -319229738.7913724, -197652013.5075595, -201240987.6335512, -148851113.9661527, -239967473.26096374, -109127944.82920013, -280896779.0878283, -240485477.47033086], "split1_train_score": [-158397830.12480384, -186594862.32698438, -206805499.59839386, -118376987.80764191, -119365382.07480642, -86213584.00431602, -150001615.5703064, -63798246.57866299, -171254109.89224553, -152103385.74440917], "split2_train_score": [-229969473.36552936, -254626098.21356872, -282788082.8681191, -184735417.81097934, -182944021.58346632, -142714989.22527283, -214504365.59809095, -120006979.70309421, -242676421.82818362, -228883330.54755768], "mean_train_score": [-215065158.95534945, -247002006.02240553, -269607773.7526285, -166921473.04206026, -167850130.430608, -125926562.3985805, -201491151.4764537, -97644390.37031913, -231609103.60275248, -207157397.9207659], "std_train_score": [41543046.422966905, 46523113.672237426, 46833697.27603497, 34728805.48961456, 35088201.80633885, 28192830.015406385, 37863541.776891276, 24341452.122130368, 45440384.95002889, 39216158.62405215]}}, {"iter2_fit": {"mean_fit_time": [18.217883030573528, 13.325983762741089, 17.81726082166036, 31.77101214726766, 17.83146397272746, 29.929800748825073, 18.49017794926961, 20.769820133845013, 17.157965024312336, 10.454817295074463], "std_fit_time": [0.2880248236201961, 0.1588421079097377, 0.9216676323810037, 0.1301014774911334, 0.1585184227639738, 0.3301068718481088, 0.23748529414495786, 0.35450731417564574, 2.3435113633716487, 0.6667761465297976], "mean_score_time": [0.026356617609659832, 0.02264118194580078, 0.025989294052124023, 0.029326359430948894, 0.027678569157918293, 0.03133885065714518, 0.039974610010782875, 0.023603280385335285, 0.022605419158935547, 0.021264394124348957], "std_score_time": [0.002602030432733659, 0.002355168501435642, 0.004342101417734147, 0.00045507861034626537, 0.0033168461414663087, 0.006139562098215032, 0.021433669036211248, 0.00047041527692273633, 0.0018819410822254966, 0.004023977812725435], "param_subsample": [0.4569713107118667, 0.35343437059287375, 0.35343437059287375, 0.35343437059287375, 0.35343437059287375, 0.35343437059287375, 0.2852506014760778, 0.4569713107118667, 0.2852506014760778, 0.2852506014760778], "param_reg_lambda": [14, 9, 9, 12, 12, 9, 12, 14, 9, 9], "param_reg_alpha": [0.01084025077966301, 0.019319651262819957, 0.017160808649380327, 0.019319651262819957, 0.019319651262819957, 0.01084025077966301, 0.017160808649380327, 0.01084025077966301, 0.01084025077966301, 0.019319651262819957], "param_n_estimators": [1457, 1457, 1457, 1827, 1827, 1827, 1480, 1457, 1480, 1457], "param_min_child_weight": [5, 5, 5, 5, 7, 5, 5, 5, 7, 9], "param_max_depth": [8, 6, 8, 11, 6, 11, 8, 8, 11, 8], "param_learning_rate": [0.006157203441310985, 0.006157203441310985, 0.006510993916526133, 0.013158573502905313, 0.006157203441310985, 0.006510993916526133, 0.006510993916526133, 0.013158573502905313, 0.013158573502905313, 0.006157203441310985], "param_colsample_bytree": [0.3886754899446866, 0.3886754899446866, 0.422655920420715, 0.3886754899446866, 0.6254355289817817, 0.422655920420715, 0.6254355289817817, 0.422655920420715, 0.3886754899446866, 0.3886754899446866], "params": [{"subsample": 0.4569713107118667, "reg_lambda": 14, "reg_alpha": 0.01084025077966301, "n_estimators": 1457, "min_child_weight": 5, "max_depth": 8, "learning_rate": 0.006157203441310985, "colsample_bytree": 0.3886754899446866}, {"subsample": 0.35343437059287375, "reg_lambda": 9, "reg_alpha": 0.019319651262819957, "n_estimators": 1457, "min_child_weight": 5, "max_depth": 6, "learning_rate": 0.006157203441310985, "colsample_bytree": 0.3886754899446866}, {"subsample": 0.35343437059287375, "reg_lambda": 9, "reg_alpha": 0.017160808649380327, "n_estimators": 1457, "min_child_weight": 5, "max_depth": 8, "learning_rate": 0.006510993916526133, "colsample_bytree": 0.422655920420715}, {"subsample": 0.35343437059287375, "reg_lambda": 12, "reg_alpha": 0.019319651262819957, "n_estimators": 1827, "min_child_weight": 5, "max_depth": 11, "learning_rate": 0.013158573502905313, "colsample_bytree": 0.3886754899446866}, {"subsample": 0.35343437059287375, "reg_lambda": 12, "reg_alpha": 0.019319651262819957, "n_estimators": 1827, "min_child_weight": 7, "max_depth": 6, "learning_rate": 0.006157203441310985, "colsample_bytree": 0.6254355289817817}, {"subsample": 0.35343437059287375, "reg_lambda": 9, "reg_alpha": 0.01084025077966301, "n_estimators": 1827, "min_child_weight": 5, "max_depth": 11, "learning_rate": 0.006510993916526133, "colsample_bytree": 0.422655920420715}, {"subsample": 0.2852506014760778, "reg_lambda": 12, "reg_alpha": 0.017160808649380327, "n_estimators": 1480, "min_child_weight": 5, "max_depth": 8, "learning_rate": 0.006510993916526133, "colsample_bytree": 0.6254355289817817}, {"subsample": 0.4569713107118667, "reg_lambda": 14, "reg_alpha": 0.01084025077966301, "n_estimators": 1457, "min_child_weight": 5, "max_depth": 8, "learning_rate": 0.013158573502905313, "colsample_bytree": 0.422655920420715}, {"subsample": 0.2852506014760778, "reg_lambda": 9, "reg_alpha": 0.01084025077966301, "n_estimators": 1480, "min_child_weight": 7, "max_depth": 11, "learning_rate": 0.013158573502905313, "colsample_bytree": 0.3886754899446866}, {"subsample": 0.2852506014760778, "reg_lambda": 9, "reg_alpha": 0.019319651262819957, "n_estimators": 1457, "min_child_weight": 9, "max_depth": 8, "learning_rate": 0.006157203441310985, "colsample_bytree": 0.3886754899446866}], "split0_test_score": [-424096200.087352, -415670167.406504, -415023962.3087883, -423557371.41937864, -424286629.7729653, -420998755.8436085, -427203095.05478203, -417214588.0934584, -403617811.5066655, -414833304.36576724], "split1_test_score": [-1076475413.1734192, -1072284351.0835861, -1049165342.441067, -1025344263.4405, -1043952290.4565995, -1024569140.4565276, -1106884770.429416, -1037704813.0200908, -1019700374.5457209, -1094556867.4864614], "split2_test_score": [-844117323.099725, -810898219.3101038, -786142309.9660857, -668146070.020543, -771344071.905542, -738134800.6035194, -830321387.7359581, -701422304.5466558, -679892057.288204, -869563894.4027492], "mean_test_score": [-781562978.7868322, -766284245.9333979, -750110538.238647, -705682568.2934738, -746527664.0450355, -727900898.9678851, -788136417.7400521, -718780568.5534016, -701070081.1135302, -792984688.7516593], "std_test_score": [269980794.26879126, 269911530.58835566, 260137833.88732144, 247108083.4763815, 253585322.04098547, 246512814.88320595, 279077616.1216134, 253611266.57987368, 251960066.4656372, 282729920.1464029], "rank_test_score": [8, 7, 6, 2, 5, 4, 9, 3, 1, 10], "split0_train_score": [-414881777.7273363, -432889616.64897764, -388361932.03799975, -183015141.30586457, -429298445.5844838, -304177751.9086272, -509286471.3740284, -174654201.88149458, -313164880.98606664, -597025958.4810662], "split1_train_score": [-298345527.5021813, -309314816.83755404, -270921397.17422986, -104217560.34941775, -291267953.94123477, -202989854.94837072, -352074057.7807132, -116584522.28750886, -189686760.38157585, -405295918.8747776], "split2_train_score": [-348082605.82174546, -389380973.3141915, -348301045.2486293, -180583024.8890572, -368871172.69004524, -282508126.96048695, -431333784.6348843, -169025784.12689018, -275514820.70207673, -489416681.6982845], "mean_train_score": [-353769970.350421, -377195135.6002411, -335861458.1536196, -155938575.51477984, -363145857.4052546, -263225244.6058283, -430898104.59654194, -153421502.76529786, -259455487.3565731, -497246186.35137606], "std_train_score": [47745394.12757711, 51179773.13810218, 48745100.96815088, 36585756.38020839, 56495950.192038566, 43501875.72000066, 64182438.458822235, 26148831.964300603, 51672934.29272748, 78469008.23124094]}}, {"iter3_fit": {"mean_fit_time": [10.890204588572184, 15.230265776316324, 8.139896631240845, 7.08338737487793, 12.415127913157145, 6.289844115575154, 7.270886421203613, 5.697428226470947, 6.9414347012837725, 6.695428212483724], "std_fit_time": [0.18763002406460305, 0.42751557764318343, 0.5715109284667678, 0.26772304966708826, 0.26328146188598345, 0.04986903496856302, 0.2222900381747346, 0.029092153430763133, 0.32520561176137797, 0.4347455145066737], "mean_score_time": [0.025266011555989582, 0.026596228281656902, 0.018949270248413086, 0.02127663294474284, 0.02227441469828288, 0.016954580942789715, 0.018616676330566406, 0.01695529619852702, 0.0202790101369222, 0.014957110087076822], "std_score_time": [0.0030828751060691297, 0.003081127303802179, 3.8933590933214475e-07, 0.0012437729483048311, 0.00339071476820936, 0.000814198722330158, 0.0009402119419245932, 0.00081458810475976, 0.0033905122142501866, 4.230763643330309e-06], "param_subsample": [0.17477272597211804, 0.28272903532787125, 0.17477272597211804, 0.42475527524332035, 0.42475527524332035, 0.28272903532787125, 0.28272903532787125, 0.17477272597211804, 0.17477272597211804, 0.28272903532787125], "param_reg_lambda": [9, 7, 9, 9, 7, 8, 8, 7, 8, 7], "param_reg_alpha": [0.011334785669487006, 0.009869742622769028, 0.006792658764742297, 0.011334785669487006, 0.009869742622769028, 0.011334785669487006, 0.009869742622769028, 0.011334785669487006, 0.006792658764742297, 0.011334785669487006], "param_n_estimators": [1497, 1497, 823, 823, 823, 823, 745, 745, 745, 823], "param_min_child_weight": [9, 9, 4, 6, 6, 6, 9, 9, 4, 6], "param_max_depth": [14, 15, 15, 6, 15, 6, 14, 14, 15, 14], "param_learning_rate": [0.012468218356551774, 0.016323283861707984, 0.01524236876973235, 0.01524236876973235, 0.016323283861707984, 0.012468218356551774, 0.016323283861707984, 0.012468218356551774, 0.016323283861707984, 0.016323283861707984], "param_colsample_bytree": [0.36668334494499083, 0.25300829501408395, 0.42491569093874826, 0.42491569093874826, 0.25300829501408395, 0.36668334494499083, 0.36668334494499083, 0.25300829501408395, 0.42491569093874826, 0.36668334494499083], "params": [{"subsample": 0.17477272597211804, "reg_lambda": 9, "reg_alpha": 0.011334785669487006, "n_estimators": 1497, "min_child_weight": 9, "max_depth": 14, "learning_rate": 0.012468218356551774, "colsample_bytree": 0.36668334494499083}, {"subsample": 0.28272903532787125, "reg_lambda": 7, "reg_alpha": 0.009869742622769028, "n_estimators": 1497, "min_child_weight": 9, "max_depth": 15, "learning_rate": 0.016323283861707984, "colsample_bytree": 0.25300829501408395}, {"subsample": 0.17477272597211804, "reg_lambda": 9, "reg_alpha": 0.006792658764742297, "n_estimators": 823, "min_child_weight": 4, "max_depth": 15, "learning_rate": 0.01524236876973235, "colsample_bytree": 0.42491569093874826}, {"subsample": 0.42475527524332035, "reg_lambda": 9, "reg_alpha": 0.011334785669487006, "n_estimators": 823, "min_child_weight": 6, "max_depth": 6, "learning_rate": 0.01524236876973235, "colsample_bytree": 0.42491569093874826}, {"subsample": 0.42475527524332035, "reg_lambda": 7, "reg_alpha": 0.009869742622769028, "n_estimators": 823, "min_child_weight": 6, "max_depth": 15, "learning_rate": 0.016323283861707984, "colsample_bytree": 0.25300829501408395}, {"subsample": 0.28272903532787125, "reg_lambda": 8, "reg_alpha": 0.011334785669487006, "n_estimators": 823, "min_child_weight": 6, "max_depth": 6, "learning_rate": 0.012468218356551774, "colsample_bytree": 0.36668334494499083}, {"subsample": 0.28272903532787125, "reg_lambda": 8, "reg_alpha": 0.009869742622769028, "n_estimators": 745, "min_child_weight": 9, "max_depth": 14, "learning_rate": 0.016323283861707984, "colsample_bytree": 0.36668334494499083}, {"subsample": 0.17477272597211804, "reg_lambda": 7, "reg_alpha": 0.011334785669487006, "n_estimators": 745, "min_child_weight": 9, "max_depth": 14, "learning_rate": 0.012468218356551774, "colsample_bytree": 0.25300829501408395}, {"subsample": 0.17477272597211804, "reg_lambda": 8, "reg_alpha": 0.006792658764742297, "n_estimators": 745, "min_child_weight": 4, "max_depth": 15, "learning_rate": 0.016323283861707984, "colsample_bytree": 0.42491569093874826}, {"subsample": 0.28272903532787125, "reg_lambda": 7, "reg_alpha": 0.011334785669487006, "n_estimators": 823, "min_child_weight": 6, "max_depth": 14, "learning_rate": 0.016323283861707984, "colsample_bytree": 0.36668334494499083}], "split0_test_score": [-422997402.2605752, -434677047.0243171, -396493261.2432564, -416071536.3166161, -414856940.10880125, -390701876.15940535, -404611028.7205131, -423240870.74426764, -381980496.16849977, -388189187.8722224], "split1_test_score": [-1089556995.79833, -1025049017.7127805, -1091405234.9014046, -1005711403.3576877, -993910062.5957675, -1060331378.9169514, -1043304686.7863724, -1197531076.997728, -1078242652.704684, -1030376070.0166299], "split2_test_score": [-826309206.7347195, -680773100.5733271, -812257804.3119615, -695485521.0361071, -700527840.0664878, -763119995.6313001, -767935487.1523471, -968652507.1219126, -819168789.284186, -702179861.558765], "mean_test_score": [-779621201.597875, -713499721.7701415, -766718766.8188742, -705756153.5701369, -703098280.9236856, -738051083.569219, -738617067.5530776, -863141484.9546361, -759797312.7191232, -706915039.8158726], "std_test_score": [274117067.8159823, 242126743.3182668, 285518260.63635385, 240828995.5141614, 236404434.58915436, 273949211.2354793, 261568441.66073287, 324787892.55358046, 287331372.9572429, 262193076.86567384], "rank_test_score": [9, 4, 8, 2, 1, 5, 6, 10, 7, 3], "split0_train_score": [-571809267.1403717, -292104500.38462883, -529823967.1160497, -295055512.467684, -227570891.02555773, -480208295.11886364, -475436017.81933594, -786293507.594103, -521776073.84178793, -358523354.38118213], "split1_train_score": [-371895759.88094115, -178406010.47589597, -347649123.131848, -197784564.92016742, -145668464.05848196, -323849454.61013275, -310545890.0266591, -544343699.092494, -338624697.1406767, -228376077.39639205], "split2_train_score": [-458821030.8788337, -260823424.95485756, -444379901.0725585, -266710186.11153772, -216390436.66700038, -404070606.4629171, -404376008.85858905, -622230269.6576159, -443629368.2728512, -316187298.29441094], "mean_train_score": [-467508685.9667155, -243777978.60512745, -440617663.77348536, -253183421.16646302, -196543263.91701338, -402709452.0639712, -396785972.2348614, -650955825.4480709, -434676713.08510524, -301028910.02399504], "std_train_score": [81845216.1476613, 47956557.30504225, 74420132.88211715, 40846373.45475038, 36262327.42484653, 63840485.103012875, 67529722.11223477, 100842436.91718358, 75038742.09616032, 54202773.47059176]}}]