[{"init_fit": {"mean_fit_time": [7.643224477767944, 37.84939750035604, 18.976670503616333, 4.747140566507976, 8.103837728500366, 12.379965702692667, 7.595157225926717, 6.44616945584615, 5.612962563832601, 8.928638855616251], "std_fit_time": [0.07572842779027392, 0.36645227263490676, 0.12067781050046918, 0.009857824684067238, 0.5838751368576596, 0.5991233886786475, 0.08431644122258082, 0.062265858173510207, 0.055159026191048906, 0.47586816105633367], "mean_score_time": [0.02097320556640625, 0.03801997502644857, 0.02433625857035319, 0.015365123748779297, 0.018323898315429688, 0.022340854008992512, 0.01685476303100586, 0.017328818639119465, 0.018991788228352863, 0.01732293764750163], "std_score_time": [0.0007962650388022918, 0.010670499055620291, 0.0020508927700127323, 0.0004760404527312145, 0.0012644502912859195, 0.0017133315188789175, 0.000644686394889546, 0.0006155921029871655, 0.0021536522940770767, 0.0033154732401674283], "param_subsample": [0.5, 0.8, 0.8, 1, 0.5, 0.5, 0.5, 0.8, 0.5, 0.5], "param_reg_lambda": [4, 8, 2, 4, 4, 2, 2, 8, 4, 4], "param_reg_alpha": [0.01, 0.01, 0.01, 0.01, 0.1, 0.2, 0.01, 0.2, 0.2, 0.001], "param_n_estimators": [500, 2000, 1000, 500, 500, 1000, 1000, 500, 1000, 2000], "param_min_child_weight": [20, 10, 10, 30, 10, 30, 10, 30, 20, 30], "param_max_depth": [15, 9, 9, 9, 15, 9, 3, 9, 3, 9], "param_learning_rate": [0.1, 0.01, 0.1, 0.0001, 0.01, 0.01, 0.0001, 0.01, 0.001, 0.0001], "param_colsample_bytree": [0.2, 0.8, 0.8, 0.8, 0.2, 0.2, 0.8, 0.2, 0.2, 0.8], "params": [{"subsample": 0.5, "reg_lambda": 4, "reg_alpha": 0.01, "n_estimators": 500, "min_child_weight": 20, "max_depth": 15, "learning_rate": 0.1, "colsample_bytree": 0.2}, {"subsample": 0.8, "reg_lambda": 8, "reg_alpha": 0.01, "n_estimators": 2000, "min_child_weight": 10, "max_depth": 9, "learning_rate": 0.01, "colsample_bytree": 0.8}, {"subsample": 0.8, "reg_lambda": 2, "reg_alpha": 0.01, "n_estimators": 1000, "min_child_weight": 10, "max_depth": 9, "learning_rate": 0.1, "colsample_bytree": 0.8}, {"subsample": 1, "reg_lambda": 4, "reg_alpha": 0.01, "n_estimators": 500, "min_child_weight": 30, "max_depth": 9, "learning_rate": 0.0001, "colsample_bytree": 0.8}, {"subsample": 0.5, "reg_lambda": 4, "reg_alpha": 0.1, "n_estimators": 500, "min_child_weight": 10, "max_depth": 15, "learning_rate": 0.01, "colsample_bytree": 0.2}, {"subsample": 0.5, "reg_lambda": 2, "reg_alpha": 0.2, "n_estimators": 1000, "min_child_weight": 30, "max_depth": 9, "learning_rate": 0.01, "colsample_bytree": 0.2}, {"subsample": 0.5, "reg_lambda": 2, "reg_alpha": 0.01, "n_estimators": 1000, "min_child_weight": 10, "max_depth": 3, "learning_rate": 0.0001, "colsample_bytree": 0.8}, {"subsample": 0.8, "reg_lambda": 8, "reg_alpha": 0.2, "n_estimators": 500, "min_child_weight": 30, "max_depth": 9, "learning_rate": 0.01, "colsample_bytree": 0.2}, {"subsample": 0.5, "reg_lambda": 4, "reg_alpha": 0.2, "n_estimators": 1000, "min_child_weight": 20, "max_depth": 3, "learning_rate": 0.001, "colsample_bytree": 0.2}, {"subsample": 0.5, "reg_lambda": 4, "reg_alpha": 0.001, "n_estimators": 2000, "min_child_weight": 30, "max_depth": 9, "learning_rate": 0.0001, "colsample_bytree": 0.8}], "split0_test_score": [-580686379.3393558, -494314789.537685, -585396946.9481575, -32199137029.781937, -444156308.1226428, -459303018.22438467, -29309099099.064693, -485195312.1938536, -6183334988.845122, -24474138245.52544], "split1_test_score": [-1109267193.2362, -1112114137.6190472, -1300248433.2215972, -38080947135.07815, -1156737518.0761652, -1132081521.1047497, -34876001082.818054, -1238550643.4546256, -8810275079.788368, -29573336670.843952], "split2_test_score": [-814013752.7974874, -731941843.6305679, -729552773.5787461, -36280793982.70177, -910302514.5210247, -920602428.1701319, -33168184527.168743, -1047215989.4509321, -7991875610.5134535, -28038215301.310028], "mean_test_score": [-834655775.1243477, -779456923.5957667, -871732717.9161669, -35520292715.85395, -837065446.9066108, -837328989.1664222, -32451094903.017166, -923653981.6998038, -7661828559.715649, -27361896739.22647], "std_test_score": [216285288.47992957, 254443537.60119152, 308668661.92913127, 2460717261.470594, 295483497.8463548, 280901617.07985324, 2328556429.919428, 319725654.38135064, 1097543272.3911085, 2135963676.8535762], "rank_test_score": [2, 1, 5, 10, 3, 4, 9, 6, 7, 8], "split0_train_score": [-114818177.6202098, -73707452.14029785, -31301.630921449636, -37150933839.841805, -591789629.2633117, -649550504.8875203, -33952015714.8339, -793958863.0031286, -8048656938.533557, -28645819706.039696], "split1_train_score": [-65350555.3793199, -53128429.40861278, -26287.235875845872, -34283252085.65563, -411598162.07898325, -438020860.7242529, -31294256984.811478, -562799950.0673344, -7190145462.1822815, -26355545758.456345], "split2_train_score": [-113529626.78470644, -73726134.72466691, -17636.684651718824, -35144933401.06981, -500833873.99423236, -510155481.2953948, -32093857627.580307, -644030109.0081855, -7424779534.671203, -27049527088.657402], "mean_train_score": [-97899453.26141204, -66854005.424525835, -25075.183816338114, -35526373108.85575, -501407221.77884245, -532575615.63572264, -32446710109.075226, -666929640.6928829, -7554527311.795681, -27350297517.717815], "std_train_score": [23021557.373008255, 9705450.873476397, 5644.141020260169, 1201394148.1545355, 73563975.59164323, 87799750.9785322, 1113343020.5243554, 95749333.05580904, 362294864.2641506, 958883318.2379891]}}, {"iter0_fit": {"mean_fit_time": [42.81426429748535, 56.636627991994224, 34.38172888755798, 48.76865267753601, 40.973668018976845, 39.688527981440224, 36.217951933542885, 37.127864917119346, 70.04017217954, 68.03058369954427], "std_fit_time": [0.4032906795552885, 0.42040649378730516, 2.6130454298231953, 0.679784600224763, 0.18738278903000588, 0.8808497870375249, 0.805491966321043, 0.5252760658127789, 1.0507926928804368, 2.7324261985855633], "mean_score_time": [0.0639795462290446, 0.04230658213297526, 0.029018561045328777, 0.029345115025838215, 0.042596022288004555, 0.027782122294108074, 0.024955272674560547, 0.0372920036315918, 0.0586092472076416, 0.04625932375590006], "std_score_time": [0.030230156918699062, 0.006061343048036035, 0.0024479590452873108, 0.0017349303665612952, 0.016813186407890496, 0.0008282077686136271, 3.05517075350469e-05, 0.006043170285405585, 0.004176713438648178, 0.012131939911443953], "param_subsample": [0.5777918902269621, 0.5777918902269621, 0.44631845875575776, 0.7067221923791207, 0.7067221923791207, 0.7067221923791207, 0.5777918902269621, 0.7067221923791207, 0.7067221923791207, 0.44631845875575776], "param_reg_lambda": [9, 4, 4, 9, 4, 4, 4, 10, 9, 9], "param_reg_alpha": [0.008360369060854654, 0.008360369060854654, 0.01461619052297897, 0.008360369060854654, 0.008360369060854654, 0.01461619052297897, 0.01461619052297897, 0.01461619052297897, 0.013520656245617782, 0.01461619052297897], "param_n_estimators": [1905, 1968, 1968, 1905, 1905, 1905, 1905, 1905, 2817, 2817], "param_min_child_weight": [5, 9, 9, 5, 11, 11, 5, 9, 9, 5], "param_max_depth": [8, 12, 7, 8, 8, 8, 7, 8, 12, 12], "param_learning_rate": [0.009855012347511058, 0.009855012347511058, 0.009855012347511058, 0.01267376156017503, 0.01267376156017503, 0.01267376156017503, 0.009855012347511058, 0.009855012347511058, 0.01267376156017503, 0.009855012347511058], "param_colsample_bytree": [0.8108816755740649, 0.6991404027680017, 0.8108816755740649, 0.6991404027680017, 0.6991404027680017, 0.6991404027680017, 0.8108816755740649, 0.6991404027680017, 0.8108816755740649, 0.6991404027680017], "params": [{"subsample": 0.5777918902269621, "reg_lambda": 9, "reg_alpha": 0.008360369060854654, "n_estimators": 1905, "min_child_weight": 5, "max_depth": 8, "learning_rate": 0.009855012347511058, "colsample_bytree": 0.8108816755740649}, {"subsample": 0.5777918902269621, "reg_lambda": 4, "reg_alpha": 0.008360369060854654, "n_estimators": 1968, "min_child_weight": 9, "max_depth": 12, "learning_rate": 0.009855012347511058, "colsample_bytree": 0.6991404027680017}, {"subsample": 0.44631845875575776, "reg_lambda": 4, "reg_alpha": 0.01461619052297897, "n_estimators": 1968, "min_child_weight": 9, "max_depth": 7, "learning_rate": 0.009855012347511058, "colsample_bytree": 0.8108816755740649}, {"subsample": 0.7067221923791207, "reg_lambda": 9, "reg_alpha": 0.008360369060854654, "n_estimators": 1905, "min_child_weight": 5, "max_depth": 8, "learning_rate": 0.01267376156017503, "colsample_bytree": 0.6991404027680017}, {"subsample": 0.7067221923791207, "reg_lambda": 4, "reg_alpha": 0.008360369060854654, "n_estimators": 1905, "min_child_weight": 11, "max_depth": 8, "learning_rate": 0.01267376156017503, "colsample_bytree": 0.6991404027680017}, {"subsample": 0.7067221923791207, "reg_lambda": 4, "reg_alpha": 0.01461619052297897, "n_estimators": 1905, "min_child_weight": 11, "max_depth": 8, "learning_rate": 0.01267376156017503, "colsample_bytree": 0.6991404027680017}, {"subsample": 0.5777918902269621, "reg_lambda": 4, "reg_alpha": 0.01461619052297897, "n_estimators": 1905, "min_child_weight": 5, "max_depth": 7, "learning_rate": 0.009855012347511058, "colsample_bytree": 0.8108816755740649}, {"subsample": 0.7067221923791207, "reg_lambda": 10, "reg_alpha": 0.01461619052297897, "n_estimators": 1905, "min_child_weight": 9, "max_depth": 8, "learning_rate": 0.009855012347511058, "colsample_bytree": 0.6991404027680017}, {"subsample": 0.7067221923791207, "reg_lambda": 9, "reg_alpha": 0.013520656245617782, "n_estimators": 2817, "min_child_weight": 9, "max_depth": 12, "learning_rate": 0.01267376156017503, "colsample_bytree": 0.8108816755740649}, {"subsample": 0.44631845875575776, "reg_lambda": 9, "reg_alpha": 0.01461619052297897, "n_estimators": 2817, "min_child_weight": 5, "max_depth": 12, "learning_rate": 0.009855012347511058, "colsample_bytree": 0.6991404027680017}], "split0_test_score": [-477538049.85212874, -480433989.32267785, -485887848.09370226, -457869082.81613016, -504073713.58086205, -504073670.28902996, -440285996.4172085, -480932659.6175667, -516503674.8478436, -475455264.03533685], "split1_test_score": [-1100714178.744653, -1063819578.8078604, -1067272155.520307, -1081649380.8319046, -1106383219.601873, -1106383275.9332852, -1099976941.688922, -1079105340.3608947, -1171711866.0626717, -1114107791.4113078], "split2_test_score": [-715228997.3660785, -738753281.725928, -677561698.9254322, -714019730.4893118, -710337276.6940764, -710337308.5732031, -719842715.7616402, -738235257.0929242, -717934203.170634, -684724709.2288373], "mean_test_score": [-764493741.98762, -761002283.2854887, -743573900.8464804, -751179398.0457822, -773598069.9589372, -773598084.9318395, -753368551.2892569, -766091085.6904618, -802049914.6937164, -758095921.558494], "std_test_score": [256784453.32267457, 238685218.1675571, 241895482.0197174, 256009239.04922214, 249927497.79911923, 249927535.67378634, 270359047.7546976, 244996053.55604732, 274020720.81325954, 265840508.3002106], "rank_test_score": [6, 5, 1, 2, 8, 9, 3, 7, 10, 4], "split0_train_score": [-83111249.46803403, -98636072.11255114, -173509079.99509043, -28964016.74917356, -62255960.99020266, -62256001.1821706, -53465267.01507817, -114066316.86159837, -28910481.767336357, -87329722.8573668], "split1_train_score": [-60349804.74313589, -55427962.89317704, -104292815.43811642, -28613846.037974678, -41090417.080895185, -41090430.77196061, -38650177.14193544, -74210484.88748364, -17550330.140166335, -44132032.901655674], "split2_train_score": [-86982023.49981526, -98152887.95666291, -162889082.0861232, -37957601.523285165, -64111105.35832896, -64111089.95758717, -59820783.54436794, -106841523.90052986, -30023030.78498423, -93014745.54206218], "mean_train_score": [-76814359.23699506, -84072307.65413035, -146896992.50644335, -31845154.770144466, -55819161.143142276, -55819173.97057279, -50645409.233793855, -98372775.2165373, -25494614.230828974, -74825500.43369488], "std_train_score": [11748954.248846194, 20255570.95089959, 30436086.220675975, 4324516.070362138, 10442295.928738778, 10442293.6736194, 8869886.970030727, 17338043.21507449, 5635789.126291245, 21827300.681892756]}}, {"iter1_fit": {"mean_fit_time": [28.657303889592487, 19.736650784810383, 29.793288389841717, 39.47192128499349, 32.208624680837, 47.23150928815206, 45.10618209838867, 51.815363009770714, 27.832910935084026, 33.46291295687357], "std_fit_time": [0.25488297030391827, 0.35279185170602856, 0.2710499690126976, 1.0981747947274494, 0.6305300352261861, 1.4309877196052119, 0.31385403149121, 0.6371549204117648, 0.3261819034347475, 2.2710164610459764], "mean_score_time": [0.02765663464864095, 0.021015326182047527, 0.025176445643107098, 0.03367384274800619, 0.03301382064819336, 0.03161048889160156, 0.03466264406840006, 0.038447062174479164, 0.030303239822387695, 0.039249817530314125], "std_score_time": [0.004921900001570248, 0.001415036117929903, 0.0006387525879451623, 0.004029262448343864, 0.005106190824593891, 0.003837657944806298, 0.0033298820127732596, 0.004965170659745254, 0.0040974126365450145, 0.009632301663742555], "param_subsample": [0.6023122109848522, 0.6023122109848522, 0.43734341996988035, 0.23730043901830025, 0.43734341996988035, 0.43734341996988035, 0.43734341996988035, 0.6023122109848522, 0.43734341996988035, 0.43734341996988035], "param_reg_lambda": [4, 4, 5, 5, 5, 2, 4, 2, 5, 2], "param_reg_alpha": [0.019846209966721894, 0.019846209966721894, 0.016577967717469604, 0.009980667931676044, 0.009980667931676044, 0.016577967717469604, 0.019846209966721894, 0.019846209966721894, 0.016577967717469604, 0.009980667931676044], "param_n_estimators": [1784, 1784, 2693, 2650, 1784, 2693, 2650, 2650, 1784, 2693], "param_min_child_weight": [9, 10, 10, 12, 12, 9, 12, 10, 12, 10], "param_max_depth": [6, 4, 4, 6, 7, 6, 6, 7, 6, 6], "param_learning_rate": [0.010997007125767755, 0.012651951407429026, 0.010997007125767755, 0.010997007125767755, 0.012651951407429026, 0.010997007125767755, 0.013658353039830182, 0.010997007125767755, 0.010997007125767755, 0.013658353039830182], "param_colsample_bytree": [0.8826488328697504, 0.8826488328697504, 0.819804437826894, 0.8826488328697504, 0.8826488328697504, 0.819804437826894, 0.8826488328697504, 0.819804437826894, 0.5264973646480049, 0.819804437826894], "params": [{"subsample": 0.6023122109848522, "reg_lambda": 4, "reg_alpha": 0.019846209966721894, "n_estimators": 1784, "min_child_weight": 9, "max_depth": 6, "learning_rate": 0.010997007125767755, "colsample_bytree": 0.8826488328697504}, {"subsample": 0.6023122109848522, "reg_lambda": 4, "reg_alpha": 0.019846209966721894, "n_estimators": 1784, "min_child_weight": 10, "max_depth": 4, "learning_rate": 0.012651951407429026, "colsample_bytree": 0.8826488328697504}, {"subsample": 0.43734341996988035, "reg_lambda": 5, "reg_alpha": 0.016577967717469604, "n_estimators": 2693, "min_child_weight": 10, "max_depth": 4, "learning_rate": 0.010997007125767755, "colsample_bytree": 0.819804437826894}, {"subsample": 0.23730043901830025, "reg_lambda": 5, "reg_alpha": 0.009980667931676044, "n_estimators": 2650, "min_child_weight": 12, "max_depth": 6, "learning_rate": 0.010997007125767755, "colsample_bytree": 0.8826488328697504}, {"subsample": 0.43734341996988035, "reg_lambda": 5, "reg_alpha": 0.009980667931676044, "n_estimators": 1784, "min_child_weight": 12, "max_depth": 7, "learning_rate": 0.012651951407429026, "colsample_bytree": 0.8826488328697504}, {"subsample": 0.43734341996988035, "reg_lambda": 2, "reg_alpha": 0.016577967717469604, "n_estimators": 2693, "min_child_weight": 9, "max_depth": 6, "learning_rate": 0.010997007125767755, "colsample_bytree": 0.819804437826894}, {"subsample": 0.43734341996988035, "reg_lambda": 4, "reg_alpha": 0.019846209966721894, "n_estimators": 2650, "min_child_weight": 12, "max_depth": 6, "learning_rate": 0.013658353039830182, "colsample_bytree": 0.8826488328697504}, {"subsample": 0.6023122109848522, "reg_lambda": 2, "reg_alpha": 0.019846209966721894, "n_estimators": 2650, "min_child_weight": 10, "max_depth": 7, "learning_rate": 0.010997007125767755, "colsample_bytree": 0.819804437826894}, {"subsample": 0.43734341996988035, "reg_lambda": 5, "reg_alpha": 0.016577967717469604, "n_estimators": 1784, "min_child_weight": 12, "max_depth": 6, "learning_rate": 0.010997007125767755, "colsample_bytree": 0.5264973646480049}, {"subsample": 0.43734341996988035, "reg_lambda": 2, "reg_alpha": 0.009980667931676044, "n_estimators": 2693, "min_child_weight": 10, "max_depth": 6, "learning_rate": 0.013658353039830182, "colsample_bytree": 0.819804437826894}], "split0_test_score": [-498292275.11381865, -521977980.6820303, -501071471.8122469, -465382240.63705367, -500206526.5959324, -495620982.3742815, -540268872.8820151, -510493095.23280156, -461565277.6742394, -538989102.7307638], "split1_test_score": [-1105179858.4552963, -1090150338.4047074, -1099980903.9294653, -1040470854.229985, -1064205295.4370265, -1119604829.3002698, -1130926184.4545834, -1148812039.1949358, -1042876393.9450953, -1142527082.323742], "split2_test_score": [-753022655.9208003, -737537995.4889654, -640455880.7558212, -748096497.4644343, -666260629.3506049, -681357395.4738035, -657879750.2869815, -707203236.555717, -682900984.786898, -674034653.7040423], "mean_test_score": [-785498263.1633052, -783222104.8585677, -747169418.8325111, -751316530.7771577, -743557483.7945213, -765527735.7161183, -776358269.20786, -788836123.6611514, -729114218.8020777, -785183612.9195161], "std_test_score": [248822739.4523282, 234193987.12279356, 255882735.35140544, 234789983.93168485, 236649889.9130112, 261600770.8175686, 255273558.5116448, 266909116.55232015, 239558483.7760548, 258624685.02162972], "rank_test_score": [9, 7, 3, 4, 2, 5, 6, 10, 1, 8], "split0_train_score": [-111719928.97377901, -145602891.13637444, -169719824.18152472, -331022804.58825016, -192876128.1443351, -96191539.44839342, -116930620.01867478, -46452114.993571326, -234490134.35993695, -80876215.15663676], "split1_train_score": [-72636935.70900622, -106524720.68890017, -111152662.75336337, -205729090.7888196, -125026053.08460328, -55076220.30397921, -68871264.97542281, -29068839.75029605, -155864749.4374793, -45515984.84058567], "split2_train_score": [-107829133.72501041, -143226861.98334834, -166925392.43841356, -293159946.8330792, -181455791.7516015, -100086698.82503068, -113378557.7003996, -49674565.54210078, -221548332.93289346, -84623875.15766783], "mean_train_score": [-97395332.80259854, -131784824.60287432, -149265959.79110056, -276637280.73671633, -166452657.66017994, -83784819.5258011, -99726814.23149908, -41731840.09532272, -203967738.91010323, -70338691.71829675], "std_train_score": [17578741.742987197, 17887910.553268213, 26974305.928751484, 52468260.56841303, 29661745.23778275, 20362233.318928875, 21866305.534601837, 9050220.262072396, 34421851.133611664, 17618859.61923389]}}, {"iter2_fit": {"mean_fit_time": [35.190569957097374, 32.61526004473368, 53.69970997174581, 32.60019175211588, 32.082702239354454, 51.752276500066124, 17.128977219263714, 12.966297070185343, 29.160054047902424, 17.014643748601276], "std_fit_time": [0.39924068949984365, 0.343032950097311, 5.1151020725867085, 0.4149150806825726, 1.029751902948366, 1.4640425753179884, 0.116611503370078, 0.19664343547616225, 3.3536352051568565, 1.1516147303919584], "mean_score_time": [0.0381014347076416, 0.05130473772684733, 0.03683010737101237, 0.03684401512145996, 0.02697277069091797, 0.030945221583048504, 0.02033225695292155, 0.01867198944091797, 0.021939516067504883, 0.021982987721761067], "std_score_time": [0.004327647026011422, 0.0305549131542412, 0.005346167174315108, 0.009274083354052463, 0.0014413033551293828, 0.0021356307577049156, 0.0016976845151072375, 0.001709014487497953, 0.0032875525740151093, 0.0021547568972839913], "param_subsample": [0.5969730323738676, 0.49043155390103843, 0.5594892715266487, 0.5594892715266487, 0.5594892715266487, 0.5594892715266487, 0.49043155390103843, 0.49043155390103843, 0.5969730323738676, 0.5594892715266487], "param_reg_lambda": [5, 4, 4, 4, 4, 4, 4, 6, 4, 4], "param_reg_alpha": [0.01075483372420338, 0.01075483372420338, 0.020993820402569113, 0.02068092834603764, 0.01075483372420338, 0.020993820402569113, 0.020993820402569113, 0.02068092834603764, 0.01075483372420338, 0.01075483372420338], "param_n_estimators": [2242, 2242, 2395, 2395, 2395, 2395, 1248, 1248, 2395, 1248], "param_min_child_weight": [8, 10, 10, 8, 10, 10, 16, 10, 8, 8], "param_max_depth": [6, 6, 8, 4, 4, 8, 4, 4, 6, 6], "param_learning_rate": [0.007194391634676605, 0.007194391634676605, 0.007194391634676605, 0.009353861728679556, 0.007194391634676605, 0.009353861728679556, 0.009353861728679556, 0.007194391634676605, 0.012343743981908836, 0.012343743981908836], "param_colsample_bytree": [0.6847526543666602, 0.6847526543666602, 0.5929686074402173, 0.6847526543666602, 0.6847526543666602, 0.6847526543666602, 0.6847526543666602, 0.6847526543666602, 0.6847526543666602, 0.7560538210094307], "params": [{"subsample": 0.5969730323738676, "reg_lambda": 5, "reg_alpha": 0.01075483372420338, "n_estimators": 2242, "min_child_weight": 8, "max_depth": 6, "learning_rate": 0.007194391634676605, "colsample_bytree": 0.6847526543666602}, {"subsample": 0.49043155390103843, "reg_lambda": 4, "reg_alpha": 0.01075483372420338, "n_estimators": 2242, "min_child_weight": 10, "max_depth": 6, "learning_rate": 0.007194391634676605, "colsample_bytree": 0.6847526543666602}, {"subsample": 0.5594892715266487, "reg_lambda": 4, "reg_alpha": 0.020993820402569113, "n_estimators": 2395, "min_child_weight": 10, "max_depth": 8, "learning_rate": 0.007194391634676605, "colsample_bytree": 0.5929686074402173}, {"subsample": 0.5594892715266487, "reg_lambda": 4, "reg_alpha": 0.02068092834603764, "n_estimators": 2395, "min_child_weight": 8, "max_depth": 4, "learning_rate": 0.009353861728679556, "colsample_bytree": 0.6847526543666602}, {"subsample": 0.5594892715266487, "reg_lambda": 4, "reg_alpha": 0.01075483372420338, "n_estimators": 2395, "min_child_weight": 10, "max_depth": 4, "learning_rate": 0.007194391634676605, "colsample_bytree": 0.6847526543666602}, {"subsample": 0.5594892715266487, "reg_lambda": 4, "reg_alpha": 0.020993820402569113, "n_estimators": 2395, "min_child_weight": 10, "max_depth": 8, "learning_rate": 0.009353861728679556, "colsample_bytree": 0.6847526543666602}, {"subsample": 0.49043155390103843, "reg_lambda": 4, "reg_alpha": 0.020993820402569113, "n_estimators": 1248, "min_child_weight": 16, "max_depth": 4, "learning_rate": 0.009353861728679556, "colsample_bytree": 0.6847526543666602}, {"subsample": 0.49043155390103843, "reg_lambda": 6, "reg_alpha": 0.02068092834603764, "n_estimators": 1248, "min_child_weight": 10, "max_depth": 4, "learning_rate": 0.007194391634676605, "colsample_bytree": 0.6847526543666602}, {"subsample": 0.5969730323738676, "reg_lambda": 4, "reg_alpha": 0.01075483372420338, "n_estimators": 2395, "min_child_weight": 8, "max_depth": 6, "learning_rate": 0.012343743981908836, "colsample_bytree": 0.6847526543666602}, {"subsample": 0.5594892715266487, "reg_lambda": 4, "reg_alpha": 0.01075483372420338, "n_estimators": 1248, "min_child_weight": 8, "max_depth": 6, "learning_rate": 0.012343743981908836, "colsample_bytree": 0.7560538210094307}], "split0_test_score": [-475586157.2218268, -469743224.12428904, -479366697.0897682, -482985858.52597624, -485363027.64743125, -487992407.3914744, -459362317.69773483, -448231355.81583345, -486922174.5712207, -476792959.4303398], "split1_test_score": [-1077970929.526243, -1046786889.9793457, -1054172495.6273351, -1092259217.8713858, -1052346707.9965851, -1069199691.8319647, -1051967220.4238256, -1043920738.7696896, -1136209754.5134168, -1064346811.1667707], "split2_test_score": [-722636228.7374494, -690740531.7113081, -690192176.9932538, -714520039.562634, -704834774.4736215, -697558453.1427279, -770334462.8256259, -750203234.139514, -711865939.9476154, -743820983.7073946], "mean_test_score": [-758731105.1618398, -735756881.9383143, -741243789.9034524, -763255038.6533321, -747514836.7058792, -751583517.455389, -760554666.9823955, -747451776.2416791, -778332623.0107509, -761653584.7681684], "std_test_score": [247243447.57631072, 237717902.728817, 237423850.0988644, 251110641.88824266, 233429238.7136909, 240332419.1644601, 242028753.09736973, 243196954.65665835, 269204947.12499857, 240199061.0834043], "rank_test_score": [6, 1, 2, 9, 4, 5, 7, 3, 10, 8], "split0_train_score": [-147431461.26579964, -213041152.2419508, -148285737.54413477, -147013643.28786618, -223970923.01459923, -106848650.20984946, -418611591.1160107, -438830687.5398613, -52845114.948502764, -158052343.35310018], "split1_train_score": [-92676404.08560586, -136776814.4083239, -91725952.1043085, -95453468.24660814, -152417888.64019778, -62376614.833550215, -291882170.1583509, -297424627.86966956, -31322329.192257352, -100249129.73680457], "split2_train_score": [-136584924.89818832, -193089951.3329027, -143104455.84543386, -135410654.74298504, -204709497.4306194, -105376612.72416446, -369029638.2934779, -377509874.47362256, -52818282.48270803, -150342205.67168707], "mean_train_score": [-125564263.41653128, -180969305.99439248, -127705381.83129239, -125959255.4258198, -193699436.36180547, -91533959.25585473, -359841133.18927985, -371255063.2943845, -45661908.87448939, -136214559.58719727], "std_train_score": [23673055.095354468, 32292876.808638528, 25529080.707036193, 22084830.757191326, 30231057.60196874, 20626112.4776416, 52143443.203042276, 57897958.65732746, 10139619.949900042, 25625451.722967736]}}]